digraph Tree {
node [shape=box] ;
0 [label="X[0] <= 2.5\ngini = 0.5\nsamples = 181\nvalue = [91, 90]"] ;
1 [label="X[2] <= 0.5\ngini = 0.3096\nsamples = 47\nvalue = [38, 9]"] ;
0 -> 1 [labeldistance=2.5, labelangle=45, headlabel="True"] ;
2 [label="gini = 0.1928\nsamples = 37\nvalue = [33, 4]"] ;
1 -> 2 ;
3 [label="X[1] <= 1.5\ngini = 0.5\nsamples = 10\nvalue = [5, 5]"] ;
1 -> 3 ;
4 [label="gini = 0.5\nsamples = 8\nvalue = [4, 4]"] ;
3 -> 4 ;
5 [label="gini = 0.5\nsamples = 2\nvalue = [1, 1]"] ;
3 -> 5 ;
6 [label="X[1] <= 1.5\ngini = 0.4782\nsamples = 134\nvalue = [53, 81]"] ;
0 -> 6 [labeldistance=2.5, labelangle=-45, headlabel="False"] ;
7 [label="X[0] <= 3.5\ngini = 0.4999\nsamples = 93\nvalue = [46, 47]"] ;
6 -> 7 ;
8 [label="X[2] <= 0.5\ngini = 0.4956\nsamples = 75\nvalue = [34, 41]"] ;
7 -> 8 ;
9 [label="gini = 0.5\nsamples = 46\nvalue = [23, 23]"] ;
8 -> 9 ;
10 [label="gini = 0.4709\nsamples = 29\nvalue = [11, 18]"] ;
8 -> 10 ;
11 [label="X[2] <= 0.5\ngini = 0.4444\nsamples = 18\nvalue = [12, 6]"] ;
7 -> 11 ;
12 [label="gini = 0.375\nsamples = 12\nvalue = [9, 3]"] ;
11 -> 12 ;
13 [label="gini = 0.5\nsamples = 6\nvalue = [3, 3]"] ;
11 -> 13 ;
14 [label="X[2] <= 0.5\ngini = 0.2832\nsamples = 41\nvalue = [7, 34]"] ;
6 -> 14 ;
15 [label="X[0] <= 3.5\ngini = 0.1723\nsamples = 21\nvalue = [2, 19]"] ;
14 -> 15 ;
16 [label="gini = 0.0\nsamples = 11\nvalue = [0, 11]"] ;
15 -> 16 ;
17 [label="X[0] <= 4.5\ngini = 0.32\nsamples = 10\nvalue = [2, 8]"] ;
15 -> 17 ;
18 [label="gini = 0.3457\nsamples = 9\nvalue = [2, 7]"] ;
17 -> 18 ;
19 [label="gini = 0.0\nsamples = 1\nvalue = [0, 1]"] ;
17 -> 19 ;
20 [label="X[0] <= 4.5\ngini = 0.375\nsamples = 20\nvalue = [5, 15]"] ;
14 -> 20 ;
21 [label="X[1] <= 2.5\ngini = 0.3324\nsamples = 19\nvalue = [4, 15]"] ;
20 -> 21 ;
22 [label="X[0] <= 3.5\ngini = 0.375\nsamples = 16\nvalue = [4, 12]"] ;
21 -> 22 ;
23 [label="gini = 0.3457\nsamples = 9\nvalue = [2, 7]"] ;
22 -> 23 ;
24 [label="gini = 0.4082\nsamples = 7\nvalue = [2, 5]"] ;
22 -> 24 ;
25 [label="gini = 0.0\nsamples = 3\nvalue = [0, 3]"] ;
21 -> 25 ;
26 [label="gini = 0.0\nsamples = 1\nvalue = [1, 0]"] ;
20 -> 26 ;
}